#############################################################################
## Copyright (c) 1996, Carnegie Mellon University, Cambridge University,
## Ronald Rosenfeld and Philip Clarkson
## Version 3, Copyright (c) 2006, Carnegie Mellon University 
## Contributors includes Wen Xu, Ananlada Chotimongkol, 
## David Huggins-Daines, Arthur Chan and Alan Black 
#############################################################################
=============================================================================
===============  This file was produced by the CMU-Cambridge  ===============
===============     Statistical Language Modeling Toolkit     ===============
=============================================================================
This is a 3-gram language model, based on a vocabulary of 58 words,
  which begins "</s>", "<s>", "Celsius"...
This is a CLOSED-vocabulary model
  (OOVs eliminated from training data and are forbidden in test data)
Good-Turing discounting was applied.
1-gram frequency of frequency : 44 
2-gram frequency of frequency : 70 5 1 0 0 0 0 
3-gram frequency of frequency : 79 2 0 0 0 0 0 
1-gram discounting ratios : 0.98 
2-gram discounting ratios : 0.10 0.27 
3-gram discounting ratios : 0.00 
This file is in the ARPA-standard format introduced by Doug Paul.

p(wd3|wd1,wd2)= if(trigram exists)           p_3(wd1,wd2,wd3)
                else if(bigram w1,w2 exists) bo_wt_2(w1,w2)*p(wd3|wd2)
                else                         p(wd3|w2)

p(wd2|wd1)= if(bigram exists) p_2(wd1,wd2)
            else              bo_wt_1(wd1)*p_1(wd2)

All probs and back-off weights (bo_wt) are given in log10 form.

Data formats:

Beginning of data mark: \data\
ngram 1=nr            # number of 1-grams
ngram 2=nr            # number of 2-grams
ngram 3=nr            # number of 3-grams

\1-grams:
p_1     wd_1 bo_wt_1
\2-grams:
p_2     wd_1 wd_2 bo_wt_2
\3-grams:
p_3     wd_1 wd_2 wd_3 

end of data mark: \end\

\data\
ngram 1=58
ngram 2=76
ngram 3=81

\1-grams:
-1.4420 </s>	-0.5806
-1.3170 <s>	-0.0213
-1.9288 Celsius	-0.0209
-1.9288 a	-0.0373
-1.9288 also	-0.0319
-1.2201 and	-0.0544
-1.9288 at	-0.0428
-1.9288 be	-0.0373
-1.9288 breeze	-0.0319
-1.9288 but	-0.0428
-1.6180 cloudy	-0.0321
-1.9288 damp	-0.0209
-1.9288 develop	-0.0209
-1.6180 drizzle	-0.0155
-1.9288 dry	-0.0428
-1.6180 east	-0.0376
-1.9288 eastern	-0.0428
-1.9288 especially	-0.0209
-1.9288 generally	-0.0373
-1.9288 hazy	-0.0428
-1.9288 heavier	-0.0265
-1.9288 heavy	-0.0428
-1.9288 highest	-0.0428
-1.2201 in	-0.0544
-1.9288 intervals	-0.0428
-1.9288 later	0.0000
-1.6180 light	-0.0155
-1.9288 mainly	-0.0373
-1.9288 may	-0.0428
-1.9288 misty	-0.0373
-1.9288 moderate	-0.0428
-1.9288 morning	-0.0319
-1.9288 most	-0.0428
-1.9288 much	-0.0319
-1.9288 nine	-0.0428
-1.4420 of	-0.6231
-1.9288 or	-0.0428
-1.9288 outbreaks	-0.0319
-1.9288 parts	-0.0209
-1.9288 patchy	-0.0428
-1.9288 persistent	-0.0209
-1.9288 places	-0.0428
-1.3170 rain	-0.4079
-1.9288 scattered	-0.0428
-1.9288 some	-0.0428
-1.9288 south	-0.0373
-1.9288 spells	-0.0319
-1.9288 sunshine	-0.0428
-1.9288 temperatures	-0.0428
-1.6180 the	-0.0376
-1.9288 thirteen	-0.0428
-1.9288 this	-0.0265
-1.9288 times	-0.0319
-1.9288 to	-0.0428
-1.6180 today	-0.1199
-1.9288 west	-0.0428
-1.9288 will	-0.0428
-1.4420 with	-0.0323

\2-grams:
-0.1249 </s> <s> 0.0354
-1.5830 <s> cloudy 0.0233
-1.5830 <s> generally 0.0479
-1.5830 <s> highest 0.0479
-1.5830 <s> some 0.0479
-0.9810 Celsius in 0.0092
-0.9810 a light 0.0233
-0.9810 also with 0.0154
-0.9687 and drizzle 0.0479
-1.6799 and heavy 0.0479
-1.6799 and misty 0.0479
-1.6799 and patchy 0.0479
-0.9810 at times 0.0479
-0.9810 be light 0.0233
-0.9810 breeze </s> 0.6021
-0.9810 but heavier 0.0479
-1.2820 cloudy damp 0.0479
-1.2820 cloudy today 0.1359
-0.9810 damp and 0.0092
-0.9810 develop in 0.0494
-1.2820 drizzle in 0.0092
-1.2820 drizzle persistent 0.0479
-0.9810 dry intervals 0.0479
-1.2820 east breeze 0.0479
-1.2820 east south 0.0479
-0.9810 eastern parts 0.0479
-0.9810 especially in 0.0092
-0.9810 generally cloudy 0.0233
-0.9810 hazy sunshine 0.0479
-0.9810 heavier rain 0.0092
-0.9810 heavy at 0.0479
-0.9810 highest temperatures 0.0479
-1.6799 in a 0.0479
-1.6799 in eastern 0.0479
-1.6799 in most 0.0479
-0.9687 in the 0.0479
-0.9810 intervals also 0.0479
-1.2820 light and 0.0092
-1.2820 light or 0.0479
-0.9810 mainly east 0.0233
-0.9810 may develop 0.0479
-0.9810 misty today 0.1359
-0.9810 moderate mainly 0.0479
-0.9810 morning </s> 0.6021
-0.9810 most places 0.0479
-0.9810 much of 0.0115
-0.9810 nine to 0.0479
-0.1249 of rain -0.0792
-1.5830 of this 0.0479
-0.9810 or moderate 0.0479
-0.9810 outbreaks of 0.6021
-0.9810 parts in 0.0494
-0.9810 patchy but 0.0479
-0.9810 persistent and 0.0092
-0.9810 places much 0.0479
-0.2218 rain and -0.4277
-1.6799 rain may 0.0479
-1.6799 rain will 0.0479
-0.9810 scattered outbreaks 0.0479
-0.9810 some dry 0.0479
-0.9810 south east 0.0233
-0.9810 spells of 0.6021
-0.9810 sunshine especially 0.0479
-0.9810 temperatures nine 0.0479
-1.2820 the morning 0.0479
-1.2820 the west 0.0479
-0.9810 thirteen Celsius 0.0479
-0.9810 this rain 0.0092
-0.9810 times </s> 0.6021
-0.9810 to thirteen 0.0479
-0.5708 today with 0.0314
-0.9810 west later 0.0160
-0.9810 will be 0.0479
-1.4581 with hazy 0.0479
-1.4581 with scattered 0.0479
-1.4581 with spells 0.0479

\3-grams:
-99.9990 </s> <s> cloudy 
-99.9990 </s> <s> highest 
-99.9990 </s> <s> some 
-99.9990 <s> cloudy damp 
-99.9990 <s> generally cloudy 
-99.9990 <s> highest temperatures 
-99.9990 <s> some dry 
-99.9990 Celsius in a 
-99.9990 a light or 
-99.9990 also with hazy 
-99.9990 and drizzle in 
-99.9990 and drizzle persistent 
-99.9990 and heavy at 
-99.9990 and misty today 
-99.9990 and patchy but 
-99.9990 at times </s> 
-99.9990 be light and 
-99.9990 breeze </s> <s> 
-99.9990 but heavier rain 
-99.9990 cloudy damp and 
-99.9990 cloudy today with 
-99.9990 damp and misty 
-99.9990 develop in the 
-99.9990 drizzle in most 
-99.9990 drizzle persistent and 
-99.9990 dry intervals also 
-99.9990 east breeze </s> 
-99.9990 east south east 
-99.9990 eastern parts in 
-99.9990 especially in eastern 
-99.9990 generally cloudy today 
-99.9990 hazy sunshine especially 
-99.9990 heavier rain may 
-99.9990 heavy at times 
-99.9990 highest temperatures nine 
-99.9990 in a light 
-99.9990 in eastern parts 
-99.9990 in most places 
-99.9990 in the morning 
-99.9990 in the west 
-99.9990 intervals also with 
-99.9990 light and patchy 
-99.9990 light or moderate 
-99.9990 mainly east south 
-99.9990 may develop in 
-99.9990 misty today with 
-99.9990 moderate mainly east 
-99.9990 morning </s> <s> 
-99.9990 most places much 
-99.9990 much of this 
-99.9990 nine to thirteen 
-0.1761 of rain and 
-99.9990 of this rain 
-99.9990 or moderate mainly 
-99.9990 outbreaks of rain 
-99.9990 parts in the 
-99.9990 patchy but heavier 
-99.9990 persistent and heavy 
-99.9990 places much of 
-0.1761 rain and drizzle 
-99.9990 rain may develop 
-99.9990 rain will be 
-99.9990 scattered outbreaks of 
-99.9990 some dry intervals 
-99.9990 south east breeze 
-99.9990 spells of rain 
-99.9990 sunshine especially in 
-99.9990 temperatures nine to 
-99.9990 the morning </s> 
-99.9990 the west later 
-99.9990 thirteen Celsius in 
-99.9990 this rain will 
-99.9990 times </s> <s> 
-99.9990 to thirteen Celsius 
-99.9990 today with scattered 
-99.9990 today with spells 
-99.9990 west later </s> 
-99.9990 will be light 
-99.9990 with hazy sunshine 
-99.9990 with scattered outbreaks 
-99.9990 with spells of 

\end\
